80365 81 0.204872539088 0.365824088834 0.0336041440576 -0.251467342736 0.508838569025 0.404670212606 -0.270556969969 0.643720492982 0.674045332762 -0.0756137284144 -0.0361028144352 -0.0611731135169 -0.0202946708171 -0.0220569738829 -0.0806807166687 -0.057378072668 0.306870798031 0.0272194384853 0.000742534499307 -0.00465070150874 0.0111603937064 -0.029010205837 0.0106549253976 -0.0130234752568 0.0942811295162 -0.063681299172 0.233955217142 -0.220851091805 -0.0433212099094 0.494303540661 -0.544792764403 0.0595177462269 0.991666654483 0.188052536744 -0.101698638402 -0.0574236265707 -0.0575488129526 0.0239206836345 -0.117456615597 0.0937792739645 0.211794975047 0.195215714943 0.0733188477482 -0.241673473763 -0.00416937369822 -0.056449473758 -0.488381443966 -0.286885211012 -0.168008959255 0.255576757909 0.51043772124 0.0575158257676 0.320785042638 -0.0504989284133 0.2590434141 0.185264041568 0.161598464971 -0.223076038052 -0.126916384883 -0.288968931948 -0.0290298009102 0.0914828598412 -0.376342635331 -0.0361889609338 0.241843199096 0.341574461382 -0.523695680394 0.372368945978 0.0243243888363 -0.250829745737 0.268046377102 -0.429426648702 -0.150015712985 -0.0014358585803 0.0258529011661 0.0877993115781 0.403059744362 -0.13804427838 0.286820448185 -0.375971692148 -0.276922752601 