52275394 81 -0.340761291645 -0.0476679841785 0.313898215932 -0.326201077316 0.733505592899 0.161102046693 -0.0838128494337 0.432703821763 1.15564967543 -0.0729518249736 -0.129703480132 -0.0639993585266 0.0872347672012 -0.0417657857307 -0.202061183959 -0.0484260891339 0.412866453019 -0.0507303983538 0.107203406895 -0.0559763784391 -0.0216232350403 -0.0780471210157 0.0193813708163 0.0466852243799 0.0214730333179 -0.0734262748221 0.236884522086 -0.144857852974 -0.144499220223 0.510425783403 -0.616197527244 0.0176576316397 1.16274416003 0.38124312817 0.270253499914 0.133430326925 0.125461692522 -0.178371483787 -0.0106735868153 -0.226884745717 -1.31199759821 -1.02700340822 -1.67102213342 -1.02094800411 -1.67754225794 -2.26376856245 -1.66368134565 -1.40917036563 0.0581716722106 0.42104784561 1.17389993191 0.23429833708 -0.503328319414 0.307554101619 1.48161854285 -0.175124363396 -0.804893988321 0.83812367618 -1.69985019613 0.458241766677 0.553052747472 0.818188857122 -0.573095281871 -0.996030973033 1.3465522872 0.42636423401 -0.541263802291 -0.470625527582 1.21336739623 -0.462594624398 1.1113496361 0.0832088526824 -2.19566964014 -1.37741655026 -2.6331152001 -1.45087704004 -1.3761040683 1.80753952098 -0.857789913537 2.60476893673 11.2786092366 