3532 81 0.17757822177 0.0634620843837 0.920930479579 0.600303806198 0.428643309716 0.656297058484 0.420507161895 0.0733158732407 0.209057897223 -0.132282989852 0.0940153669765 -0.13970661075 0.048479422053 -0.0145093477564 -0.241451385337 0.178167228574 0.304943470432 -0.0312542387736 0.0211797507949 -0.0375466668134 0.0141911137578 0.0196478946488 -0.034831696573 0.00417293463685 0.0834301325988 -0.0378400532209 0.183554182238 -0.12320823615 -0.0417973023256 0.441565325196 -0.462054717009 0.0305321175264 0.982352016007 -0.0111404024474 0.206317194123 0.138025988204 -0.205542603299 -0.174136941996 0.450464246967 -0.0693025397604 -0.120962014107 -0.0122929935696 0.368864667838 -0.169996952735 0.350126199003 0.488186611805 0.268763800983 0.406027291336 0.262680170429 0.45029152606 -0.0658635030636 -0.142193244839 -0.0702430394782 0.312785725398 0.158969525663 -0.211937008617 -0.427555412598 0.286715634211 0.0599992492718 -0.0439625385284 -0.173094556053 -0.526060656051 -0.0168803191123 0.312904495597 0.0654182036432 0.380612113079 -0.452488443793 -0.504429974766 0.307599888924 -0.286229321011 -0.371886408298 -0.04747522714 -0.167506041482 -0.477003818111 -0.403522947005 -0.482286810572 -0.0274340372224 0.0469494074651 0.330605509371 -0.446832902487 0.433273443273 