9818 81 0.00253405009709 -0.0541967453491 0.0140930343862 -0.388118829327 0.305974388075 -0.10461676472 -0.310577203212 0.399529015382 0.987248347602 -0.0187069545047 -0.0728021554462 0.00519330440035 0.0274944758224 -0.0422162204887 -0.0375515367304 -0.00870682698124 0.277193436047 0.0366982101788 -0.0471185570921 0.00847993028184 -0.00445294945803 -0.0262857986892 -0.0291872135601 0.00483806581313 0.122996046465 -0.0317165739258 0.202188857792 -0.183753479665 -0.0274127249315 0.394421505227 -0.50144064479 0.0312461555172 0.967397948992 0.140251200829 -0.0374555547149 -0.0569875953869 -0.0116946362307 0.0450339084138 -0.173235430966 0.184543600501 0.203413179997 1.11604509515e-05 -0.131254175372 -0.0759427330355 0.359398506847 0.0370073025582 -0.503872960759 -0.292774429444 0.322244263694 -0.074315292301 0.48213327434 -0.0768315956387 -0.453363803769 0.416913952884 -0.158368118815 -0.336060402682 0.380863184815 -0.308986426466 0.31762488784 -0.158610430466 -0.0936189938068 0.291943226117 0.0301925234293 -0.20788612374 -0.199205242402 0.015355304087 -0.287156910459 0.0325805831636 -0.0645530978843 0.736512071425 -0.10220207924 -0.070371811387 0.0856801945847 0.104911612746 0.0977370008604 -0.298763750389 -0.00228223850907 0.244260101807 0.360454267958 -0.448867350482 -0.354060536126 