51949196 81 -0.442567138345 -0.103605474474 0.34232372036 -0.298781716024 0.741037444737 0.102690038166 -0.0963080289807 0.360469985415 1.16458912086 -0.0724958035757 -0.13269055748 -0.0605388927794 0.084552216483 -0.0400161902835 -0.201199105969 -0.0495224154625 0.413821777666 -0.0503200065059 0.106779696768 -0.0555897684159 -0.0217761031062 -0.0781586475175 0.0198022118649 0.0464553596722 0.0217055889421 -0.0732409785188 0.236811801122 -0.144827866011 -0.144514929325 0.510349568699 -0.616070686715 0.0176235912841 1.16254518014 0.433130869601 0.340767304161 0.0953753853098 0.126155965617 -0.191818877262 -0.0349364698327 -0.153447072081 -1.33159076066 -0.646500875709 -1.93528422652 -1.19472518439 -1.72989326209 -1.85672268184 -1.57513654522 -0.914502967493 -0.0148033128776 0.415568357834 1.21045765398 0.197459150587 -0.47870748473 0.287496709402 1.47044346979 -0.159132824933 -0.816875518531 0.833036798388 -1.69462779359 0.454943597291 0.553672558083 0.818413126398 -0.577706299246 -0.993070040845 1.34304846582 0.424276389979 -0.54001981187 -0.470776476416 1.21343738074 -0.461652487933 1.10992403596 0.0833018711956 -2.19296841695 -1.76904932232 -3.19233135663 -1.13614740076 -1.3804029498 1.91879475633 -0.657085961224 2.0172764537 11.4436001207 