0 81 -1138.46280684 -25.0066546212 -1.52443932267 4.89472594492 8.59070452143 2.02189984154 3.73743021222 -3.60062394938 -37.6574371323 -0.044310132149 -0.148466353334 -0.0484769320471 0.0539833615417 -0.0369520257034 -0.223891545947 -0.0362741097898 0.485247309932 -0.055476793815 0.105024648304 -0.0520484317815 -0.0305012350759 -0.0651821811334 0.0292401861358 0.0318275216577 0.018923858307 -0.0773723268764 0.23088409871 -0.147605761152 -0.140453887665 0.501836362524 -0.602544700039 0.0194366529587 1.1429126137 0.625936766199 0.307675371421 -0.167156304037 0.201242700945 -1.2660111027 1.58121196013 0.153309131578 -3.68091718355 172.734264364 9.45321640054 -34.6856306178 -58.3718686073 -15.0969731513 -29.4384852002 21.7825967005 272.605691759 -0.176823717276 1.37894230073 0.0697153279608 0.00949952268942 0.316400773445 1.84011283078 -0.015702295041 -2.38901797601 0.905013254489 -1.68418476589 0.407637479893 0.646216640793 0.670068889952 -0.665261768876 -0.736852219247 1.28026229387 0.460117504386 -0.501965751135 -0.439948225255 1.17357604164 -0.393939008531 0.961817500254 0.0951727031681 -2.03221378032 -3.23484648097 -3.02318812154 0.984829163948 -2.17689604963 10.3951152731 -13.4981036674 -0.532929151964 29.9043622916 