0 97 -120.678454831 -7.82091792175 -0.227313190344 0.322120953339 2.70782081597 0.12610972146 0.393231420923 -0.208808543881 -11.3824521576 35.8732867291 -48.9979765957 43.1304461551 57.6774267218 -45.1740278126 2.03546055858 -12.1769280669 -43.0401990795 -0.0716762244152 -0.0273549925641 -0.0737074933434 -0.0230698777748 0.0167144846138 -0.131022147545 -0.0553086106885 0.476985663196 -0.0427105588059 0.0749975311109 -0.029184338896 -0.0541275188347 -0.0174402528686 0.00635546474079 0.0139237055658 0.0576719832417 -0.0756395625005 0.245064549272 -0.18229571104 -0.117587794489 0.52044255109 -0.592272695997 0.00488328153211 1.09734753623 0.214373773494 -0.0636215165392 -0.0836615874731 0.154453925814 -0.354613027567 0.60053397483 -0.13152129595 -1.16859481944 28.770237942 0.194572134363 -1.65123615052 -9.47009709708 -0.91848213153 -3.35911461526 -1.33327961512 47.6910749431 -100.546319165 134.545349457 -118.990307383 -155.012064017 119.910105527 -3.9936975323 34.0030201583 117.718044369 0.081001561299 0.156391876968 0.237335292182 0.606162423363 -0.0603754322487 0.704428671645 0.143199061916 -2.02620699316 0.603586174027 -1.04869938249 0.0497267170698 0.778438241043 0.098276018546 -0.284165300462 -0.414783042928 0.601265616593 0.333456334745 -0.52386988888 -0.0328884613793 0.715942774835 -0.451340204066 0.661685390906 0.195599063139 -1.20935103376 -0.0741077337103 -0.0574831959254 0.19421343565 -1.15605007904 2.04784547156 -3.7425203534 1.22217342584 6.66709264709 