0 81 -240.319989765 -11.799408645 -0.786523107473 1.5869724156 4.36802994027 0.43285136921 1.06605037242 -1.03868850882 -18.4258096437 -0.0405200869179 -0.102879735634 -0.0518043794732 0.0740632262412 -0.0331954451749 -0.162808669235 -0.0358115710095 0.424141388823 -0.045538069304 0.0848310016765 -0.038075003665 -0.0380844735769 -0.0434200750028 0.0135917190778 0.0217490937227 0.0454653083289 -0.0762771443247 0.239910207129 -0.168181705974 -0.127675366479 0.512232249076 -0.589608809346 0.00809071194746 1.11066227936 0.394883237934 0.041419155968 -0.166805431742 0.201283039935 -0.55927509537 0.828523109666 -0.0111318282317 -1.9435204031 54.9390377809 2.89839772107 -8.00930407078 -19.7685958489 -2.83938884702 -7.25348240597 2.37355110995 94.1177325271 -0.207457740233 0.786436520126 0.0518494900331 -0.125499657052 0.244312393885 1.05788089504 0.0104908266279 -1.60189077784 0.684236664896 -1.2641677884 0.190086097205 0.674314032245 0.348686229294 -0.393207719548 -0.529403979056 0.803802108427 0.381047992743 -0.526135627475 -0.175081077843 0.886421156943 -0.436474889473 0.701135800613 0.19006154841 -1.43682053952 -1.09859660077 -0.685943466558 0.775533271924 -1.67342969314 3.61228363331 -5.70898333477 0.627680649108 12.2405705817 