0 81 -1138.46280624 -25.0066546706 -1.52443922797 4.89472589421 8.59070451267 2.0218998774 3.73743022126 -3.60062395844 -37.6574371269 -0.0443101322689 -0.148466353169 -0.0484769321327 0.0539833616004 -0.0369520258306 -0.223891545835 -0.0362741099244 0.485247310029 -0.0554767938059 0.105024648301 -0.0520484317914 -0.0305012350613 -0.0651821811481 0.0292401861371 0.0318275216613 0.0189238583185 -0.0773723268826 0.230884098718 -0.147605761139 -0.140453887693 0.501836362536 -0.602544700021 0.0194366529234 1.14291261372 0.625936766506 0.307675371173 -0.167156303645 0.201242701053 -1.2660111034 1.58121196101 0.153309131045 -3.68091718358 172.734264698 9.45321585111 -34.6856303185 -58.3718685987 -15.0969732337 -29.4384854632 21.782596882 272.605691671 -0.176823717099 1.3789423011 0.0697153272301 0.00949952301671 0.316400773781 1.84011283103 -0.015702295055 -2.38901797586 0.905013254534 -1.68418476589 0.407637480008 0.646216640584 0.670068890037 -0.665261768857 -0.736852219371 1.28026229396 0.460117504438 -0.501965751205 -0.439948225344 1.17357604185 -0.39393900869 0.961817500217 0.0951727032774 -2.03221378038 -3.23484648327 -3.02318812045 0.984829161669 -2.17689605089 10.3951152787 -13.4981036746 -0.532929147049 29.9043622918 