0 289 -4.86335128821 -0.0049362367299 -0.0991036549403 0.0493993282723 0.125976497027 -0.114505878762 -0.119064269972 0.293025179239 0.0154206936385 -5.54121477632 12.6308248645 8.05080144627 -3.01609410574 9.36579670323 -2.26562380002 -5.00815231812 -0.665537904953 2.31311706498 -0.904548239822 -0.310715629943 -0.208874663771 -0.65894675825 -1.62130987716 0.477163244191 4.3108208788 1.4852162263 4.34506051402 1.50141829563 -3.77271283383 0.0250355843318 0.976871083277 2.11326522114 -3.88466821896 -0.114984586028 0.077216632985 -0.299018200277 -0.51496934953 -0.0384273844893 0.0653157967766 -0.433131869159 -0.483395631849 -0.129716405315 -0.253843908427 -0.201833534845 -0.270538658013 -0.182998963361 -0.0844378654871 -0.0233452078688 -0.369367207871 0.0425384422609 0.237317463513 0.225361109216 0.34378412975 0.167326188785 0.0793615743071 0.0972671932502 0.40895209864 -0.00105923929355 -0.0205266577479 0.00557199340819 -0.0113949646857 0.0256125576815 -0.0708240629115 -0.0409479745711 0.166493077361 0.0100539640604 -0.0444767221443 0.0430472716341 0.0311692121818 -0.0654491184337 0.0284561510472 0.0573909735062 -0.02914263344 -0.0668522539047 0.234421862417 -0.225811256088 -0.0524153074666 0.486562438988 -0.493894565256 -0.0119898106738 0.920506339516 -0.0873399657727 -0.061309457914 0.0331563792658 -0.0627635017273 0.0619071742764 0.0381347342921 -0.130009018606 -0.174936467351 0.143911318152 0.230670661522 -0.568040068839 -0.0574589886491 0.515393530105 -0.454617163616 0.107037973804 0.166198255957 0.0983381325457 -0.12495227738 -0.105314124295 -0.00386698724701 0.317058932075 -0.450959940614 -0.00793098878569 0.648976845712 8.44992099361 -10.5026650326 -8.62352990598 1.05160390477 -6.61297687911 5.95091416466 6.16361459703 -10.1958859489 0.0124659147694 -0.000557830747984 -0.0064835305251 -0.0146774778386 0.00437805510275 0.00343895017489 -0.00365445013083 -0.00071706959323 -0.00626505320624 0.00192210657279 -0.001730839999 0.0124226463181 -0.00192144899289 0.0113740776725 0.00784287778542 0.0117081076691 -0.783662399002 0.100939810338 -0.382782456602 0.304197224175 -0.319863167796 -0.12687532155 -0.238138689471 -0.349957480024 0.342480247213 0.0429014604294 0.375767192437 0.258982016505 0.0983697659683 -0.0941889363377 -0.130511648062 -0.0775663410052 -0.00311530549216 0.011411681247 -0.00960225091878 -0.00576871836722 0.0107461613884 0.00314816508267 -0.020394469563 0.0095579510623 1.49542359706 -4.15079509473 -2.42206529532 1.16424714452 -3.06919320393 -0.0677898535663 1.56728933256 2.83051860194 -0.496241431523 0.152979106463 0.0749173807755 0.139632861212 0.118430904693 0.191010476865 -0.145285841466 -0.647155461524 7.30243565185 -9.49359174361 1.3285896333 8.86725762794 -7.55435064074 3.08997558159 2.7005135215 -8.67834041638 0.00491155903084 0.012738625893 -0.0224005891711 0.011093228803 -0.018676722277 -0.00187167446121 -0.00897778263855 0.0149756562606 0.00222800362944 0.00750638444311 -0.0101497372726 -0.000347312719335 -0.00389617039534 -0.000226952727186 -0.014539970283 0.00908178746847 -0.00110521451439 -0.00661283110673 0.00728147025506 -0.0011861410088 0.00357846807245 -0.000831110640555 0.00914747721058 -0.00365420787399 1.1215306881e-05 0.000186342690597 -0.000242347177461 0.000178319097413 -0.000410885034261 0.000370546344843 0.00014717726575 -0.000557092409419 5.22840762146e-05 7.8423259894e-05 -1.81964312599e-05 -0.000342294255709 0.000220175684666 0.000146284644147 -0.000592442870146 0.00054237157405 0.000284784520391 -0.000586738221911 0.000451160485631 0.000433861239427 -0.000347490828833 -0.000660708036977 0.000794919208218 0.000142974887185 0.00171562522316 0.000401086353127 -0.0009130025356 0.000273964671115 0.000242666650153 0.000183683044435 0.00198238644979 0.00270403406842 -0.00086954194419 -0.00127040998438 0.0034645228055 4.59927627656e-05 -0.00287769655406 0.00272270310545 -0.00131061089266 -0.000714257580425 0.00609572394522 0.00549417740894 0.00447903799961 -0.00276132481569 -0.0222650223192 0.0267759086173 0.00860559295625 -0.0414371868852 -3.39458653405 3.13417714384 1.87123015183 -0.318378461563 2.43393692943 -1.95737015618 -2.63116033885 4.22591511881 -2.79925771735e-05 -2.46973869115e-06 2.19277766721e-05 3.96173831497e-05 -6.39941684781e-06 -1.42362240082e-05 1.3519739312e-05 3.55867045356e-06 1.58347893261e-05 -1.69361460178e-06 8.20096251034e-07 -3.33295760755e-05 5.30933889387e-06 -2.9849471837e-05 -2.72191439892e-05 -3.13388286632e-05 0.137830428705 0.00255634235514 0.0847942131379 -0.0734699625699 0.0401304877767 0.0313635239005 0.0507772288425 0.0339386943011 -0.0848072146439 -0.0281325474396 -0.122238391676 -0.0762484258948 0.0633497280986 -0.000608244996521 -0.0800590185172 0.0567156796498 